#ifndef MINST_H
#define MINST_H

#include "common.h"
#include "math.h"


typedef struct Tensor
{
    float* data;
    uint8  dims[4];
    int  nums;
} Tensor;


//typedef struct TensorW
//{
//    int8* data;
//    uint8  dims[4];
//    int  nums;
//} TensorW;
//
//typedef struct TensorI
//{
//    uint8* data;
//    uint8  dims[4];
//    int  nums;
//} TensorI;


static float weightConv[6][3][3] = {{{-0.7050,  0.3838,  0.7889},
                                     { 0.9713,  1.4300,  0.8723},
                                     { 0.5501,  0.4447,  0.1105}},
                                   {{-1.0672, -0.9573, -0.5211},
                                    { 0.0442, -0.7516, -0.8850},
                                    { 1.0361,  1.1286,  0.5045}},
                                   {{ 0.8011,  0.8564,  0.7457},
                                    {0.3518,  0.5601,  0.9004},
                                    {-1.3545, -1.2956, -0.5220}},
                                   {{ 1.2325,  1.1488,  0.3667},
                                    { 1.1977,  0.3926, -0.7206},
                                    { 0.9477, -0.1344, -0.6673}},
                                   {{ 0.6375,  0.0243, -1.0135},
                                    { 1.2293,  0.2078, -0.4851},
                                    { 0.6851,  1.2850,  0.8446}},
                                   {{ 1.1054,  1.1751,  1.2730},
                                    {-0.6011, -0.5995, -0.4793},
                                    {-0.7201, -0.5637, -0.3718}}};




static float weightFc1[10][216] = {{ -0.0038,-0.0687,0.0554,-0.0379,-0.0513,-0.0981,-0.0586,-0.0796,0.055,0.1953,0.1517,-0.0048,0.1285,0.111,-0.0338,-0.3057,-0.0398,0.0184,0.1948,0.2248,-0.1089,-0.3796,0.2179,0.1473,0.0217,0.0565,0.0503,0.1234,-0.0226,0.115,-0.0288,-0.0055,-0.026,-0.0358,-0.1057,-0.0548,-0.0346,-0.0448,-0.049,0.0362,0.0678,-0.0229,0.0503,-0.064,-0.172,0.0047,0.137,0.0182,-0.0017,-0.053,-0.1119,-0.3362,-0.2765,0.0054,-0.0962,-0.1244,-0.0836,-0.0626,-0.1054,-0.1413,-0.1159,-0.1377,0.1012,0.1317,-0.061,-0.1271,0.0377,-0.0057,-0.0539,0.0305,0.0194,-0.0613,-0.0242,0.026,0.0151,0.0164,-0.0864,-0.0358,0.0104,-0.0106,-0.0938,0.0203,-0.0754,-0.2022,-0.0826,-0.1598,-0.1297,0.077,-0.0395,-0.0731,0.0288,-0.1586,-0.2351,-0.2297,-0.0305,-0.0025,0.005,0.0527,-0.0947,-0.1338,0.0427,0.0427,0.0494,0.0224,0.1733,0.086,-0.084,0.0709,0.0166,-0.0498,-0.0491,-0.1409,-0.1069,-0.0352,-0.0062,0.0403,-0.0724,0.0987,0.0714,0.0283,0.0114,0.1278,0.2949,0.0764,-0.0611,0.1112,0.0833,0.1283,0.3034,-0.6984,-0.034,0.1663,-0.0299,-0.1156,0.1167,-0.0995,0.1572,0.0008,-0.0614,-0.026,0.1764,0.021,-0.1438,-0.0713,-0.0456,-0.0012,-0.0559,0.1189,0.1244,0.0175,0.0008,-0.0403,-0.0091,0.0662,0.2501,0.0543,-0.0664,-0.0537,-0.0049,-0.2639,-0.0984,0.1806,-0.1309,-0.0231,0.2583,-0.2001,-0.1408,-0.0041,-0.0511,0.0226,0.4483,-0.0907,-0.0037,-0.0183,-0.0764,0.011,0.039,-0.0657,-0.1717,-0.0345,-0.049,-0.0028,-0.0455,0.0318,-0.0306,0.0183,0.0419,-0.0226,0.0006,-0.0082,-0.0393,-0.0381,0.0063,-0.1386,-0.0811,-0.0961,0.0478,-0.1746,-0.0601,-0.1484,-0.222,-0.1576,-0.027,0.0437,-0.112,-0.0802,-0.0645,-0.0991,0.0616,0.0266,-0.065,0.1058,0.1942,0.0884,0.0034,0.0701} ,

        { -0.0336,-0.0571,0.2372,0.0921,0.0682,0.0331,-0.0316,-0.0184,-0.331,0.2572,-0.1261,-0.0872,0.026,-0.0671,0.1667,0.3569,-0.1722,-0.1254,-0.0498,-0.2295,0.1355,0.27,-0.3046,-0.0063,0.0182,0.0201,0.3482,-0.2374,0.0828,0.1014,0.1848,0.0691,-0.1096,-0.0165,0.0995,0.0115,0.0073,0.0759,-0.0639,-0.0468,-0.0608,0.0398,-0.0122,0.075,-0.0255,-0.0077,-0.283,-0.0428,0.1122,0.093,-0.0724,0.1653,-0.0882,0.0574,-0.002,-0.0005,-0.0541,-0.0613,0.0011,0.0843,0.0784,0.0274,-0.001,0.1024,0.1595,0.1059,0.0035,-0.0112,0.0742,0.0469,-0.0165,0.0282,-0.0233,0.0138,-0.0252,-0.0378,-0.0927,0.0114,-0.0233,-0.0207,-0.1555,-0.4197,-0.2047,0.0025,0.0039,0.0421,0.0384,-0.1659,-0.1751,-0.0854,-0.0769,-0.1224,0.0142,-0.0999,-0.0188,-0.0505,-0.0701,-0.0564,-0.0504,-0.0086,-0.0705,-0.0016,0.0575,-0.0214,0.0108,-0.0532,0.141,-0.0206,-0.0033,0.0457,0.079,0.2213,-0.0111,0.0801,0.0494,-0.0917,-0.177,-0.05,-0.1352,0.0127,-0.0734,-0.0637,-0.2885,0.5429,-0.0606,-0.1544,-0.0062,-0.0578,-0.0801,0.4373,-0.2598,-0.0841,-0.0768,0.0945,-0.0764,0.2157,-0.2088,0.0955,0.0234,0.1865,-0.0891,-0.2202,0.124,0.0473,-0.0664,0.0096,-0.0831,-0.0655,0.0359,0.1158,0.0591,0.0249,-0.0393,0.1112,-0.1624,-0.0787,0.0449,-0.0733,-0.2577,0.1737,-0.1457,-0.0856,-0.0081,-0.0987,-0.2451,0.1797,-0.0541,-0.0203,0.1082,-0.0635,-0.2138,0.3108,0.0521,0.0148,-0.0243,-0.0143,-0.0279,-0.1673,0.0479,0.0029,-0.0539,-0.0083,-0.0328,0.0323,-0.069,0.0311,0.0532,-0.0637,-0.2194,-0.3812,-0.2348,-0.024,0.0238,0.058,0.0153,-0.107,-0.1482,-0.0776,-0.0219,-0.0245,-0.0242,-0.0784,0.0043,-0.0198,-0.0796,-0.1197,-0.1341,-0.0595,-0.015,-0.0236,-0.0079,0.054,-0.0351,-1e-04,0.1367,0.0872} ,

        { -0.0601,0.1046,0.0349,0.0296,0.065,-0.0664,-0.103,0.0734,-0.025,-0.0968,-0.1598,-0.1863,-0.1658,-0.0968,-0.1643,-0.2708,-0.0183,-0.1446,0.0452,0.207,0.304,0.1996,0.0563,0.1633,0.1488,0.1878,0.1538,0.0249,0.1881,0.1925,-0.004,0.0035,-0.2069,-0.078,0.0542,0.0515,0.0559,-0.0717,-0.0418,0.0426,-0.0273,-0.0508,0.0196,0.1379,0.2095,0.1695,0.0004,-0.0969,0.1622,0.3031,0.2165,-0.0144,-0.2155,-0.0718,0.086,-0.0765,-0.1326,0.0954,0.0214,0.1687,-0.1029,-0.141,-0.1514,0.2555,0.6378,0.3674,-0.0518,-0.0637,-0.0625,0.072,0.0657,0.0029,0.0527,0.137,0.2253,0.132,-0.018,-0.0654,0.1202,0.2606,0.2888,0.2209,-0.0932,-0.1665,0.0334,0.3006,0.1789,0.0027,-0.1126,-0.1274,-0.1542,-0.2324,-0.0232,-0.137,0.0294,0.319,-0.0398,-0.0755,-0.0572,0.0881,0.173,0.3331,0.0167,0.0517,0.0637,0.1361,0.1246,0.0788,0.0336,-0.0436,-0.0424,-0.0092,-0.081,0.0172,0.1079,-0.1214,-0.0178,-0.0772,-0.1625,0.0542,0.0592,-0.1974,-0.3683,-0.237,0.0502,0.0436,-0.0192,0.1525,0.0616,0.2203,0.0041,-0.1652,0.106,0.2025,0.3082,0.1498,-0.1554,-0.0162,0.0975,-0.0375,-0.0483,-0.1005,0.0033,0.0322,-0.0072,-0.0625,-0.0037,0.029,0.093,0.0215,0.0488,-0.0385,-0.1439,-0.0089,0.1358,0.0115,0.1583,-0.1307,-0.2356,-0.2171,-0.1842,0.0231,0.084,-0.2839,-0.1095,0.0077,-0.1523,-0.043,0.0123,-0.0357,0.0849,0.0151,0.1924,-0.053,-0.0291,-0.1105,-0.0719,-0.146,0.0267,-0.118,-0.0212,0.0031,0.051,0.0294,0.0313,-0.0426,0.0293,0.2392,0.2551,0.1182,-0.0013,-0.0936,0.1279,0.3406,0.3373,0.0457,-0.1284,-0.0885,-0.0361,0.0532,-0.0933,-0.174,-0.0162,0.2815,-0.0597,-0.0984,-0.0902,0.1225,0.2528,0.3222,-0.0304,0.0291,0.0529,0.0963,0.1932,0.0878} ,

        { 0.053,-0.1038,-0.0339,-0.0261,-0.1096,-0.0927,0.1402,0.0546,-0.1994,-0.022,-0.0206,-0.1509,-0.0889,-0.0703,0.3097,0.2668,0.1696,-0.1765,-0.0233,-0.27,0.0175,-0.2509,-0.0367,-0.0955,0.0891,-0.1643,-0.1411,-0.0276,0.1588,-0.0483,0.0834,0.2069,0.1755,0.0612,-0.009,-0.1083,-0.0412,0.0545,0.1335,0.1514,-0.0692,-0.0297,0.0384,0.1117,0.1295,-0.0876,-0.1326,-0.1255,0.0133,0.1286,-0.0195,-0.021,-0.01,-0.0211,0.1587,0.167,0.1151,0.0275,0.1303,0.0865,0.0302,0.3018,0.1767,-0.0064,-0.0877,-0.1706,-0.042,0.0967,0.1505,-0.0018,-0.0642,-0.0227,-0.0475,0.0086,0.0972,0.1477,-0.0424,-0.0397,0.0957,0.3456,0.5569,-0.0286,-0.2639,-0.1875,0.0076,0.0973,0.1042,-0.0562,0.0126,0.0356,-0.1218,0.1585,0.3996,0.3127,0.037,-0.1063,0.1841,0.193,0.1542,0.0834,0.0479,-0.0836,-0.0131,0.1269,0.1203,0.0021,-0.0277,-0.0824,0.0513,-0.0491,-0.0788,-0.0236,-0.0153,0.0867,0.0821,0.0709,-0.2421,-0.0468,0.037,0.1014,0.1747,-0.0791,-0.0919,0.1079,0.0075,0.0312,-0.0143,-0.3144,-0.1441,-0.1614,-0.1201,0.0076,0.163,-0.1788,-0.3773,-0.2801,0.1753,0.0105,0.1114,0.1532,0.1636,0.1669,0.0403,0.0065,-0.002,0.0402,0.139,0.0693,0.1502,-0.0258,0.0474,0.0145,-0.1563,-0.079,0.0811,0.0659,0.0639,-0.2182,-0.3144,0.0129,-0.0563,-0.0208,0.1961,0.0464,0.1408,0.0704,0.1112,0.0509,0.2077,0.1535,-0.1748,-0.0896,0.086,-0.0031,0.1264,0.0533,-0.0461,-0.1144,-0.1895,0.0156,-0.0652,-0.0284,0.0679,0.002,-0.0065,0.0128,0.0275,0.247,0.3493,-0.063,-0.2614,-0.1699,0.1215,0.2841,0.2605,-0.0486,0.0301,0.0903,-0.0173,0.0889,0.2048,0.2379,0.0971,-0.0871,0.1097,0.2285,0.2009,0.107,-0.1044,-0.1177,0.117,0.027,-0.0378,-0.004,-0.039,-0.0482} ,

        { 0.074,-0.013,0.0168,0.062,0.0109,0.1742,0.0281,-0.191,-0.1573,-0.3119,0.2445,0.2391,-0.0402,0.2402,0.0803,-0.1849,-0.0237,0.0414,0.1208,0.093,-0.0356,0.3461,0.167,0.013,-0.0534,-0.2415,-0.2749,-0.0692,-0.2561,-0.0526,-0.0809,-0.0208,-0.0058,-0.1265,-0.0103,0.1009,0.0894,0.026,0.0827,-0.0793,-0.1261,0.0968,-0.0042,0.0397,-0.0979,-0.4328,-0.2265,-0.2261,-0.0808,-0.1272,0.1444,-0.1001,0.056,0.0205,-0.0488,-0.0522,0.079,0.1304,-0.0035,0.1173,0.0036,-0.0173,-0.0735,-0.0793,0.0998,-0.0181,0.0676,0.0034,-0.0543,0.0206,0.0563,-0.026,0.0529,-0.0115,-0.0698,-0.0028,0.0365,-0.0638,-0.0133,0.0178,-0.4223,-0.5444,-0.4193,0.1211,-0.1124,-0.2111,-0.159,-0.1714,-0.2035,-0.0227,0.0197,0.1124,0.0594,0.0463,0.1051,0.085,-0.0087,-0.0614,-0.0296,0.0186,-0.0799,-0.0017,-0.0556,-0.063,-0.1247,0.0392,0.1392,0.0079,0.0539,0.0074,0.0871,0.2794,0.1927,0.0609,-0.007,0.0535,0.2905,0.1862,0.3779,0.1605,-0.0319,0.0385,0.3229,-0.2249,0.3434,-0.0025,-0.0697,0.2345,0.0059,-0.0513,0.281,0.0093,0.0697,-0.0536,-0.0133,0.2448,-0.0724,-0.008,-0.0665,-0.1515,-0.0717,-0.1352,-0.0368,0.0187,-0.0187,0.0835,-0.0412,-0.0984,-0.0107,0.0625,-0.0256,0.003,0.0951,-0.1538,-0.037,-0.1131,-0.0068,0.0351,0.4707,0.0035,0.1208,-0.1337,-0.0474,0.1208,0.1469,0.1391,0.1308,0.0005,-0.0788,-0.2386,-0.4109,0.0096,-0.0713,-0.0655,-0.0024,-0.0249,0.0922,0.0964,0.1091,0.0087,-0.0625,-0.007,-0.0054,-0.0844,0.0042,0.0497,0.026,0.0299,-0.3657,-0.5874,-0.2064,0.0248,-0.0377,-0.178,-0.3399,-0.3652,-0.1899,0.0117,-0.0045,0.1194,0.0604,-0.0248,0.1073,0.0242,0.0693,0.0601,0.0063,0.1023,0.0982,-0.0673,-0.0154,-0.0863,-0.1218,-0.15,0.0101,0.0608} ,

        { -0.0033,0.0479,0.0013,0.0041,0.0795,-0.1142,-0.0942,0.0618,-0.0119,0.0719,0.1717,0.3654,-0.0905,-0.1149,0.0884,-0.0529,-0.1208,0.1644,0.0135,-0.1664,-0.1081,-0.332,-0.1891,-0.1977,-0.0402,0.0249,0.1644,0.2412,0.0792,-0.0155,-0.0914,-0.0092,0.0679,0.1132,0.0772,0.0581,-0.0008,-0.0096,0.0672,-0.0404,-0.0057,0.0517,0.0194,-0.1739,-0.0669,0.2203,0.1404,0.1735,0.0311,-0.0536,0.0823,0.344,0.6555,0.2137,0.1212,0.3396,0.1572,0.2226,0.0493,0.1156,0.0669,0.405,0.3051,0.0612,-0.1222,-0.0395,0.0069,0.0905,0.18,0.1361,0.0357,-0.0256,-0.0076,0.0291,-0.1419,0.0393,0.0741,0.0106,-0.037,-0.1463,-0.2181,0.1901,0.4708,0.3555,-0.0068,0.0262,-0.1162,0.2005,0.2914,0.2718,0.1007,0.2625,0.21,0.1347,-0.0728,-0.185,0.1036,0.2104,0.1078,-0.0787,-0.0498,-0.0423,-0.0225,0.0399,0.1054,-0.036,-0.0759,0.0776,-0.0185,-0.0805,-0.0383,-0.0889,0.0326,-0.1035,-0.1615,-0.0064,0.1342,-0.0698,-0.1079,-0.211,-0.0553,-0.064,0.0406,-0.1627,-0.3573,-0.0568,-0.0406,-0.2277,-0.124,-0.1548,-0.2668,-0.1423,0.0049,-0.151,-0.2943,-0.101,0.0713,0.0233,-0.0619,0.0879,0.0482,0.0469,0.0528,0.1579,-0.0351,0.0887,0.0164,-0.2077,-0.0668,-0.1277,-0.1017,0.0272,0.194,-0.0241,-0.263,-0.1216,-0.1122,0.0804,0.2265,0.2135,0.1375,-0.1443,0.1482,0.1015,0.0031,-0.1198,0.1854,0.0153,0.1016,0.1546,0.0087,-0.1087,0.0322,0.1113,0.0538,-0.0615,0.1211,0.0367,0.06,0.0755,0.0384,-0.0043,-0.0878,0.0358,-0.0058,-0.0079,-0.0557,-0.3131,-0.1408,0.3124,0.4223,0.2353,-0.0588,-0.0876,-0.1113,0.2382,0.3723,0.4112,0.0353,0.1542,0.0929,0.1281,-0.1442,-0.0849,0.0864,0.2148,0.1013,-0.0059,-0.0455,-0.0191,-0.0387,0.0615,0.03,-0.1287,-0.0715,0.038} ,

        { 0.0522,0.086,0.0151,0.0888,0.2576,0.1193,-0.0506,-0.1107,0.0189,-0.2198,-0.0971,-0.1178,0.0634,0.1734,-0.1105,0.0072,-0.0081,0.0522,-0.0463,0.1239,0.0993,-0.0354,-0.0474,0.1008,-0.147,0.0575,0.1446,0.1721,0.2574,0.0239,-0.1282,-0.2151,-0.1327,-0.1829,-0.1752,-0.0323,-0.0753,-0.0485,-0.3115,-0.266,-0.1331,0.0203,-0.0102,-0.1398,-0.1671,-0.0589,0.0294,0.0468,-0.0216,-0.0798,-0.1319,0.2961,0.4527,0.2567,-0.0181,-0.1211,-0.1342,-0.0797,0.038,-0.1269,-0.0101,-0.1765,-0.0166,0.0512,-0.0565,-0.0202,-0.0154,0.0105,0.0669,0.0352,-0.0292,-0.051,0.0002,0.036,-0.1034,-0.128,0.1423,0.1236,-0.0547,-0.1922,-0.3785,-0.1072,0.2337,0.1625,-0.073,-0.2498,-0.3808,-0.1096,0.2613,-0.0039,0.0417,-0.1911,-0.3308,0.0251,-0.0463,-0.0147,0.0274,0.1717,0.0317,0.0703,0.0654,-0.0588,-0.1654,-0.086,0.1614,0.1885,0.0239,-0.0028,-0.0112,0.1629,0.3627,0.3309,0.324,0.1298,0.0206,0.0843,0.0957,0.1148,-0.2945,-0.0559,-0.104,0.1583,0.3359,0.0075,-0.4564,0.0594,-0.1287,0.0392,0.1729,0.1046,-0.1021,0.0833,-0.054,-0.1127,0.1835,-0.0055,0.1574,-0.024,-0.1458,-0.2206,0.2171,0.1151,0.0232,-0.0731,-0.0797,-0.0667,-0.1942,-0.3034,-0.2184,-0.0197,-0.059,-0.0364,-0.2001,-0.3803,-0.2947,0.0009,-0.0211,0.0819,0.0886,0.073,-0.076,0.1669,-0.168,0.0831,0.2403,0.1341,-0.0325,-0.0245,-0.0617,-0.0027,0.3587,0.1454,0.0603,-0.0579,-0.0208,-0.0154,-0.185,-0.1806,-0.0434,0.0115,-0.0019,-0.008,0.0188,-0.0106,-0.0521,-0.023,-0.0509,-0.1605,-0.1573,0.0228,0.2551,0.163,-0.0983,-0.215,-0.2471,0.0129,0.229,-0.0948,0.0195,-0.2215,-0.2083,-0.002,-0.052,-0.103,0.0042,-0.0432,-0.1008,0.0019,0.0535,-0.0972,-0.0979,-0.0869,0.1217,0.1893,0.1129,-0.0139} ,

        { 0.0168,0.011,-0.0661,-0.2208,-0.1747,-0.0024,0.1573,0.1247,-0.0028,0.1482,0.2017,-0.0353,0.0058,-0.12,-0.0746,0.0468,0.0577,-0.1212,-0.1096,0.1677,-0.3215,0.1811,0.1634,0.0441,-0.1037,-0.0855,-0.2753,-0.0551,-0.1736,-0.0848,0.0883,0.177,0.0741,-0.0498,-0.1105,-0.1105,0.0633,0.1741,0.2175,0.1069,0.0883,0.0942,0.099,0.229,0.2087,0.1386,0.1684,0.091,0.0734,0.1396,0.0215,-0.1021,0.1102,0.0289,0.0388,-0.0709,0.0341,-0.2277,0.0087,0.009,0.0082,0.0331,-0.1412,-0.1242,-0.0838,-0.0072,0.0677,-0.0605,-0.0427,0.0909,0.0534,-0.0117,0.0137,0.0241,-0.0558,0.0375,0.0459,0.0606,0.1247,0.2115,0.1552,0.1599,-0.0962,-0.0364,-0.0124,0.0994,0.2175,0.2568,-0.0308,-0.0683,-0.0183,0.1113,-0.2719,-0.2227,0.1669,0.0203,-0.1326,-0.1931,-0.1682,-0.1566,0.0019,0.0301,0.1256,-0.1859,-0.3041,-0.1908,-0.2419,-0.0937,0.0585,0.065,-0.0533,-0.1539,-0.0995,-0.0735,0.0609,-0.1034,0.0037,-0.0311,0.2158,-0.0051,0.1148,0.0272,-0.0028,0.2062,0.2874,0.0529,0.1046,0.2661,0.1394,-0.0225,0.2243,0.0224,0.027,-0.022,0.0409,0.1638,0.0056,-0.0212,-0.0329,0.1048,-0.0548,-0.0131,-0.0961,-0.1324,0.0113,0.1783,0.0648,-0.1125,-0.0232,-0.0312,0.0313,0.1949,0.228,0.252,0.0092,1e-04,0.0587,-0.0775,-0.6801,-0.1423,0.2044,0.0229,0.0111,-0.2418,-0.3018,-0.1808,0.1799,-0.0035,-0.0128,-0.1497,-0.2748,-0.0561,-0.1675,-0.1585,0.0183,0.0778,0.1283,0.213,0.0512,-0.1377,-0.0034,-0.0417,0.0375,-0.02,0.0122,-0.0256,-0.0018,0.195,0.2793,0.1657,0.0124,-0.0173,0.0342,0.1059,0.2411,0.1725,0.0121,-0.0161,0.021,0.1433,-0.1867,-0.1655,0.0677,-0.0444,0.0393,0.0149,-0.1852,-0.1899,0.1439,0.0185,-0.0419,-0.1715,-0.3085,-0.2451,-0.1373,-0.0258} ,

        { -0.0759,-0.0199,0.0011,0.189,-0.0116,0.0023,-0.0837,0.2006,0.1656,-0.2707,-0.0403,0.0416,0.0737,-0.2274,-0.0465,-0.1548,0.2259,0.1974,-0.0273,-0.0814,0.2688,-0.0987,-0.0876,-0.049,0.002,-0.0327,-0.1768,-0.2852,-0.2304,0.0314,0.0232,-0.2075,0.0425,0.3026,0.0279,-0.052,-0.0141,-0.0917,0.0533,0.1382,0.0632,-0.0117,-0.1064,-0.103,0.0445,-0.0052,0.0101,0.0697,-0.1219,-0.1058,0.0511,0.0562,-0.2376,-0.1942,0.0007,-0.03,-0.1632,-0.0272,0.3856,0.0032,-0.1062,-0.3649,-0.3615,-0.1594,-0.0353,-0.1479,-0.0446,-0.1243,-0.1517,-0.1708,-0.1429,-0.0479,-0.0497,-0.0588,-0.0581,-0.0683,-0.0646,0.0162,-0.0931,-0.1426,-0.0411,0.1598,0.0128,-0.0039,0.0684,0.2519,0.212,-0.1871,0.13,0.1011,-0.0313,-0.1458,0.0285,0.0879,0.0899,0.0951,0.0223,-0.1417,-0.053,0.0237,-0.0146,-0.1151,-0.0184,-0.0311,0.15,0.1179,0.0391,-0.0148,-0.0396,-0.0496,-0.0321,-0.1511,-0.027,0.0214,-0.0263,-0.011,0.0324,-0.0014,0.0129,0.0218,-0.0284,-0.1058,-0.2272,-0.1363,0.0956,0.1051,0.0416,-0.0574,-0.0172,0.1616,-0.1477,-0.0321,-0.1239,0.2355,0.2841,-0.3425,-0.1284,0.0015,-0.0091,-0.2095,-0.3127,-0.0121,0.0314,0.0746,0.0207,-0.0109,0.0647,0.1729,0.1782,0.0819,-0.0189,0.1408,0.2244,0.0824,0.0023,0.0382,0.0004,0.2931,0.4569,0.2605,-0.1077,-0.0461,-0.0529,-0.1166,0.0382,0.325,0.1278,0.0132,-0.0513,0.0101,0.3038,0.0016,-0.0056,0.0234,-0.0579,0.1626,0.081,0.0343,-0.0406,0.0606,0.0287,0.0178,0.0608,0.0603,0.0622,0.0466,-0.0018,-0.08,-0.0757,-0.0036,0.0349,-0.0186,-0.0516,-0.0725,-0.0642,-0.0083,0.1512,0.0348,0.0928,0.0426,-0.0516,-0.0002,0.2712,0.1503,-0.059,-0.3393,-0.2178,-0.0459,-0.1019,-0.0995,-0.0375,0.0503,0.2766,0.1531,0.0114,-0.0019} ,

        { -0.0176,-0.0493,-0.1823,-0.2366,-0.1744,-0.1161,0.0161,0.0705,0.577,0.2655,-0.145,-0.2426,0.1007,0.3223,-0.051,0.2236,0.1704,-0.1457,-0.0133,-0.1082,-0.1025,-0.0844,0.0659,-0.2641,-0.0692,-0.1186,-0.0835,0.0081,-0.2228,-0.0773,-0.0075,0.0736,0.0795,-0.0644,-0.0184,0.1502,-0.0425,-0.0343,-0.0004,0.3002,0.1184,-0.0186,-0.0554,-0.0743,-0.0808,0.2051,0.11,0.116,-0.1902,-0.2501,-0.2587,-0.2788,-0.1125,-0.0579,-0.1169,-0.0521,0.1459,-0.0951,-0.4124,-0.2184,-0.0309,0.0919,0.1635,-0.0452,-0.2413,-0.0459,-0.0275,1e-04,-0.1298,-0.0212,0.0886,-0.0427,-0.0555,-0.0545,-0.0405,0.0205,-0.0481,-0.0465,-0.1604,-0.1477,0.0895,0.2745,0.1957,-0.1439,-0.0642,-0.184,0.0571,-0.001,-0.0887,-0.2629,0.0408,0.1361,0.307,0.2083,-0.3092,-0.1287,0.0116,0.1797,0.1537,0.0421,-0.0478,-0.0937,-0.0331,-0.0725,-0.2996,-0.3002,-0.0431,-0.0456,-0.0623,-0.0669,-0.1348,-0.3479,-0.1897,-0.006,-0.1073,0.0675,0.0438,0.0361,-0.1129,0.0523,-0.063,0.1946,0.0183,0.0469,0.118,0.0428,-0.0799,-0.2648,-0.3668,0.024,0.3445,0.0982,-0.0133,-0.1101,-0.2829,-0.0655,-0.0587,-0.1047,-0.0505,-0.0748,0.0608,-0.0252,-0.0574,0.0965,-0.0368,-0.0483,0.0409,0.2185,-0.0088,-0.1086,0.0413,-0.1369,-0.2047,0.0684,0.1786,0.1433,0.0006,0.2181,0.3543,-0.0019,0.0959,0.1021,-0.0823,0.2921,-0.048,-0.2458,-0.1093,-0.0507,0.0084,0.0465,-0.1501,-0.1192,-0.0482,0.0913,-0.0101,0.1147,-0.0125,0.0774,0.1732,0.1563,-0.0479,-0.0364,-0.0316,0.0329,-0.0287,-0.0441,-0.0861,-0.0319,0.1502,0.3047,0.1681,0.0186,-0.0763,-0.2515,-0.0776,-0.0126,-0.1514,-0.2075,-0.1006,-0.0779,0.296,0.2089,-0.2063,-0.1739,-0.0591,0.2263,0.2122,-0.0398,-0.1044,-0.0441,-0.0499,-0.0795,-0.1537,-0.232,-0.0957,-0.0517}};











//static uint8 dataInput[28][28] = {{ 0,0,0,0,0,0,0,0,0,0,0,0,0,0,0,0,0,0,0,0,0,0,0,0,0,0,0,0},//9
//                           { 0,0,0,0,0,0,0,0,0,0,0,0,0,0,0,0,0,0,0,0,0,0,0,0,0,0,0,0},
//                           { 0,0,0,0,0,0,0,0,0,0,0,0,0,0,0,0,0,0,0,0,0,0,0,0,0,0,0,0},
//                           { 0,0,0,0,0,0,0,0,0,0,0,0,0,0,0,0,0,0,0,0,0,0,0,0,0,0,0,0},
//                           { 0,0,0,0,0,0,0,0,0,0,0,0,0,0,0,0,0,0,0,0,0,0,0,0,0,0,0,0},
//                           { 0,0,0,0,0,0,0,0,0,0,0,0,0,0,0,0,0,0,0,0,0,0,0,0,0,0,0,0},
//                           { 0,0,0,0,0,0,0,0,0,0,0,0,0,0,0,0,0,0,0,0,0,0,0,0,0,0,0,0},
//                           { 0,0,0,0,0,0,0,0,0,0,0,0,253,253,253,253,0,0,0,0,0,0,0,0,0,0,0,0},
//                           { 0,0,0,0,0,0,0,0,0,0,255,253,253,0,0,253,0,0,0,0,0,0,0,0,0,0,0,0},
//                           { 0,0,0,0,0,0,0,0,0,0,253,253,0,0,0,253,0,0,0,0,0,0,0,0,0,0,0,0},
//                           { 0,0,0,0,0,0,0,0,0,253,253,0,0,0,0,253,255,0,0,0,0,0,0,0,0,0,0,0},
//                           { 0,0,0,0,0,0,0,0,0,253,253,0,0,0,0,253,255,0,0,0,0,0,0,0,0,0,0,0},
//                           { 0,0,0,0,0,0,0,0,0,253,253,0,0,0,253,253,0,0,0,0,0,0,0,0,0,0,0,0},
//                           { 0,0,0,0,0,0,0,0,0,0,253,253,253,253,253,253,0,0,0,0,0,0,0,0,0,0,0,0},
//                           { 0,0,0,0,0,0,0,0,0,0,0,253,253,0,253,253,0,0,0,0,0,0,0,0,0,0,0,0},
//                           { 0,0,0,0,0,0,0,0,0,0,0,0,0,0,253,253,0,0,0,0,0,0,0,0,0,0,0,0},
//                           { 0,0,0,0,0,0,0,0,0,0,0,0,0,0,253,253,0,0,0,0,0,0,0,0,0,0,0,0},
//                           { 0,0,0,0,0,0,0,0,0,0,0,0,0,0,0,253,0,0,0,0,0,0,0,0,0,0,0,0},
//                           { 0,0,0,0,0,0,0,0,0,0,0,0,0,0,253,253,0,0,0,0,0,0,0,0,0,0,0,0},
//                           { 0,0,0,0,0,0,0,0,0,0,0,0,0,0,253,253,0,0,0,0,0,0,0,0,0,0,0,0},
//                           { 0,0,0,0,0,0,0,0,0,0,0,0,0,0,254,253,0,0,0,0,0,0,0,0,0,0,0,0},
//                           { 0,0,0,0,0,0,0,0,0,0,0,0,0,0,253,253,0,0,0,0,0,0,0,0,0,0,0,0},
//                           { 0,0,0,0,0,0,0,0,0,0,0,0,0,0,0,0,0,0,0,0,0,0,0,0,0,0,0,0},
//                           { 0,0,0,0,0,0,0,0,0,0,0,0,0,0,0,0,0,0,0,0,0,0,0,0,0,0,0,0},
//                           { 0,0,0,0,0,0,0,0,0,0,0,0,0,0,0,0,0,0,0,0,0,0,0,0,0,0,0,0},
//                           { 0,0,0,0,0,0,0,0,0,0,0,0,0,0,0,0,0,0,0,0,0,0,0,0,0,0,0,0},
//                           { 0,0,0,0,0,0,0,0,0,0,0,0,0,0,0,0,0,0,0,0,0,0,0,0,0,0,0,0},
//                           { 0,0,0,0,0,0,0,0,0,0,0,0,0,0,0,0,0,0,0,0,0,0,0,0,0,0,0,0}};


//static uint8 dataInput[28][28] = {{ 0,0,0,0,0,0,0,0,0,0,0,0,0,0,0,0,0,0,0,0,0,0,0,0,0,0,0,0},//9
//                           { 0,0,0,0,0,0,0,0,0,0,0,0,0,0,0,0,0,0,0,0,0,0,0,0,0,0,0,0},
//                           { 0,0,0,0,0,0,0,0,0,0,0,0,0,0,0,0,0,0,0,0,0,0,0,0,0,0,0,0},
//                           { 0,0,0,0,0,0,0,0,0,0,0,0,0,0,0,0,0,0,0,0,0,0,0,0,0,0,0,0},
//                           { 0,0,0,0,0,0,0,0,0,0,0,0,0,0,0,0,0,0,0,0,0,0,0,0,0,0,0,0},
//                           { 0,0,0,0,0,0,0,0,0,0,0,0,0,0,0,0,0,0,0,0,0,0,0,0,0,0,0,0},
//                           { 0,0,0,0,0,0,0,0,0,0,0,0,0,0,0,0,0,0,0,0,0,0,0,0,0,0,0,0},
//                           { 0,0,0,0,0,0,0,0,0,0,0,0,1,1,1,1,0,0,0,0,0,0,0,0,0,0,0,0},
//                           { 0,0,0,0,0,0,0,0,0,0,1,1,1,0,0,1,0,0,0,0,0,0,0,0,0,0,0,0},
//                           { 0,0,0,0,0,0,0,0,0,0,1,1,0,0,0,1,0,0,0,0,0,0,0,0,0,0,0,0},
//                           { 0,0,0,0,0,0,0,0,0,1,1,0,0,0,0,1,1,0,0,0,0,0,0,0,0,0,0,0},
//                           { 0,0,0,0,0,0,0,0,0,1,1,0,0,0,0,1,1,0,0,0,0,0,0,0,0,0,0,0},
//                           { 0,0,0,0,0,0,0,0,0,1,1,0,0,0,1,1,0,0,0,0,0,0,0,0,0,0,0,0},
//                           { 0,0,0,0,0,0,0,0,0,0,1,1,1,1,1,1,0,0,0,0,0,0,0,0,0,0,0,0},
//                           { 0,0,0,0,0,0,0,0,0,0,0,1,1,0,1,1,0,0,0,0,0,0,0,0,0,0,0,0},
//                           { 0,0,0,0,0,0,0,0,0,0,0,0,0,0,1,1,0,0,0,0,0,0,0,0,0,0,0,0},
//                           { 0,0,0,0,0,0,0,0,0,0,0,0,0,0,1,1,0,0,0,0,0,0,0,0,0,0,0,0},
//                           { 0,0,0,0,0,0,0,0,0,0,0,0,0,0,0,1,0,0,0,0,0,0,0,0,0,0,0,0},
//                           { 0,0,0,0,0,0,0,0,0,0,0,0,0,0,1,1,0,0,0,0,0,0,0,0,0,0,0,0},
//                           { 0,0,0,0,0,0,0,0,0,0,0,0,0,0,1,1,0,0,0,0,0,0,0,0,0,0,0,0},
//                           { 0,0,0,0,0,0,0,0,0,0,0,0,0,0,1,1,0,0,0,0,0,0,0,0,0,0,0,0},
//                           { 0,0,0,0,0,0,0,0,0,0,0,0,0,0,1,1,0,0,0,0,0,0,0,0,0,0,0,0},
//                           { 0,0,0,0,0,0,0,0,0,0,0,0,0,0,0,0,0,0,0,0,0,0,0,0,0,0,0,0},
//                           { 0,0,0,0,0,0,0,0,0,0,0,0,0,0,0,0,0,0,0,0,0,0,0,0,0,0,0,0},
//                           { 0,0,0,0,0,0,0,0,0,0,0,0,0,0,0,0,0,0,0,0,0,0,0,0,0,0,0,0},
//                           { 0,0,0,0,0,0,0,0,0,0,0,0,0,0,0,0,0,0,0,0,0,0,0,0,0,0,0,0},
//                           { 0,0,0,0,0,0,0,0,0,0,0,0,0,0,0,0,0,0,0,0,0,0,0,0,0,0,0,0},
//                           { 0,0,0,0,0,0,0,0,0,0,0,0,0,0,0,0,0,0,0,0,0,0,0,0,0,0,0,0}};


static float dataInput[28][28] = {{0.0000, 0.0000, 0.0000, 0.0000, 0.0000, 0.0000, 0.0000, 0.0000,//7
          0.0000, 0.0000, 0.0000, 0.0000, 0.0000, 0.0000, 0.0000, 0.0000,
          0.0000, 0.0000, 0.0000, 0.0000, 0.0000, 0.0000, 0.0000, 0.0000,
          0.0000, 0.0000, 0.0000, 0.0000},
         {0.0000, 0.0000, 0.0000, 0.0000, 0.0000, 0.0000, 0.0000, 0.0000,
          0.0000, 0.0000, 0.0000, 0.0000, 0.0000, 0.0000, 0.0000, 0.0000,
          0.0000, 0.0000, 0.0000, 0.0000, 0.0000, 0.0000, 0.0000, 0.0000,
          0.0000, 0.0000, 0.0000, 0.0000},
         {0.0000, 0.0000, 0.0000, 0.0000, 0.0000, 0.0000, 0.0000, 0.0000,
          0.0000, 0.0000, 0.0000, 0.0000, 0.0000, 0.0000, 0.0000, 0.0000,
          0.0000, 0.0000, 0.0000, 0.0000, 0.0000, 0.0000, 0.0000, 0.0000,
          0.0000, 0.0000, 0.0000, 0.0000},
         {0.0000, 0.0000, 0.0000, 0.0000, 0.0000, 0.0000, 0.0000, 0.0000,
          0.0000, 0.0000, 0.0000, 0.0000, 0.0000, 0.0000, 0.0000, 0.0000,
          0.0000, 0.0000, 0.0000, 0.0000, 0.0000, 0.0000, 0.0000, 0.0000,
          0.0000, 0.0000, 0.0000, 0.0000},
         {0.0000, 0.0000, 0.0000, 0.0000, 0.0000, 0.0000, 0.0000, 0.0000,
          0.0000, 0.0000, 0.0000, 0.0000, 0.0000, 0.0000, 0.0000, 0.0000,
          0.0000, 0.0000, 0.0000, 0.0000, 0.0000, 0.0000, 0.0000, 0.0000,
          0.0000, 0.0000, 0.0000, 0.0000},
         {0.0000, 0.0000, 0.0000, 0.0000, 0.0000, 0.0000, 0.0000, 0.0000,
          0.0000, 0.0000, 0.0000, 0.0000, 0.0000, 0.0000, 0.0000, 0.0000,
          0.0000, 0.0000, 0.0000, 0.0000, 0.0000, 0.0000, 0.0000, 0.0000,
          0.0000, 0.0000, 0.0000, 0.0000},
         {0.0000, 0.0000, 0.0000, 0.0000, 0.0000, 0.0000, 0.0000, 0.0000,
          0.0000, 0.0000, 0.0000, 0.0000, 0.0000, 0.0000, 0.0000, 0.0000,
          0.0000, 0.0000, 0.0000, 0.0000, 0.0000, 0.0000, 0.0000, 0.0000,
          0.0000, 0.0000, 0.0000, 0.0000},
         {0.0000, 0.0000, 0.0000, 0.0000, 0.0000, 0.0000, 0.3294, 0.7255,
          0.6235, 0.5922, 0.2353, 0.1412, 0.0000, 0.0000, 0.0000, 0.0000,
          0.0000, 0.0000, 0.0000, 0.0000, 0.0000, 0.0000, 0.0000, 0.0000,
          0.0000, 0.0000, 0.0000, 0.0000},
         {0.0000, 0.0000, 0.0000, 0.0000, 0.0000, 0.0000, 0.8706, 0.9961,
          0.9961, 0.9961, 0.9961, 0.9451, 0.7765, 0.7765, 0.7765, 0.7765,
          0.7765, 0.7765, 0.7765, 0.7765, 0.6667, 0.2039, 0.0000, 0.0000,
          0.0000, 0.0000, 0.0000, 0.0000},
         {0.0000, 0.0000, 0.0000, 0.0000, 0.0000, 0.0000, 0.2627, 0.4471,
          0.2824, 0.4471, 0.6392, 0.8902, 0.9961, 0.8824, 0.9961, 0.9961,
          0.9961, 0.9804, 0.8980, 0.9961, 0.9961, 0.5490, 0.0000, 0.0000,
          0.0000, 0.0000, 0.0000, 0.0000},
         {0.0000, 0.0000, 0.0000, 0.0000, 0.0000, 0.0000, 0.0000, 0.0000,
          0.0000, 0.0000, 0.0000, 0.0667, 0.2588, 0.0549, 0.2627, 0.2627,
          0.2627, 0.2314, 0.0824, 0.9255, 0.9961, 0.4157, 0.0000, 0.0000,
          0.0000, 0.0000, 0.0000, 0.0000},
         {0.0000, 0.0000, 0.0000, 0.0000, 0.0000, 0.0000, 0.0000, 0.0000,
          0.0000, 0.0000, 0.0000, 0.0000, 0.0000, 0.0000, 0.0000, 0.0000,
          0.0000, 0.0000, 0.3255, 0.9922, 0.8196, 0.0706, 0.0000, 0.0000,
          0.0000, 0.0000, 0.0000, 0.0000},
         {0.0000, 0.0000, 0.0000, 0.0000, 0.0000, 0.0000, 0.0000, 0.0000,
          0.0000, 0.0000, 0.0000, 0.0000, 0.0000, 0.0000, 0.0000, 0.0000,
          0.0000, 0.0863, 0.9137, 1.0000, 0.3255, 0.0000, 0.0000, 0.0000,
          0.0000, 0.0000, 0.0000, 0.0000},
         {0.0000, 0.0000, 0.0000, 0.0000, 0.0000, 0.0000, 0.0000, 0.0000,
          0.0000, 0.0000, 0.0000, 0.0000, 0.0000, 0.0000, 0.0000, 0.0000,
          0.0000, 0.5059, 0.9961, 0.9333, 0.1725, 0.0000, 0.0000, 0.0000,
          0.0000, 0.0000, 0.0000, 0.0000},
         {0.0000, 0.0000, 0.0000, 0.0000, 0.0000, 0.0000, 0.0000, 0.0000,
          0.0000, 0.0000, 0.0000, 0.0000, 0.0000, 0.0000, 0.0000, 0.0000,
          0.2314, 0.9765, 0.9961, 0.2431, 0.0000, 0.0000, 0.0000, 0.0000,
          0.0000, 0.0000, 0.0000, 0.0000},
         {0.0000, 0.0000, 0.0000, 0.0000, 0.0000, 0.0000, 0.0000, 0.0000,
          0.0000, 0.0000, 0.0000, 0.0000, 0.0000, 0.0000, 0.0000, 0.0000,
          0.5216, 0.9961, 0.7333, 0.0196, 0.0000, 0.0000, 0.0000, 0.0000,
          0.0000, 0.0000, 0.0000, 0.0000},
         {0.0000, 0.0000, 0.0000, 0.0000, 0.0000, 0.0000, 0.0000, 0.0000,
          0.0000, 0.0000, 0.0000, 0.0000, 0.0000, 0.0000, 0.0000, 0.0353,
          0.8039, 0.9725, 0.2275, 0.0000, 0.0000, 0.0000, 0.0000, 0.0000,
          0.0000, 0.0000, 0.0000, 0.0000},
         {0.0000, 0.0000, 0.0000, 0.0000, 0.0000, 0.0000, 0.0000, 0.0000,
          0.0000, 0.0000, 0.0000, 0.0000, 0.0000, 0.0000, 0.0000, 0.4941,
          0.9961, 0.7137, 0.0000, 0.0000, 0.0000, 0.0000, 0.0000, 0.0000,
          0.0000, 0.0000, 0.0000, 0.0000},
         {0.0000, 0.0000, 0.0000, 0.0000, 0.0000, 0.0000, 0.0000, 0.0000,
          0.0000, 0.0000, 0.0000, 0.0000, 0.0000, 0.0000, 0.2941, 0.9843,
          0.9412, 0.2235, 0.0000, 0.0000, 0.0000, 0.0000, 0.0000, 0.0000,
          0.0000, 0.0000, 0.0000, 0.0000},
         {0.0000, 0.0000, 0.0000, 0.0000, 0.0000, 0.0000, 0.0000, 0.0000,
          0.0000, 0.0000, 0.0000, 0.0000, 0.0000, 0.0745, 0.8667, 0.9961,
          0.6510, 0.0000, 0.0000, 0.0000, 0.0000, 0.0000, 0.0000, 0.0000,
          0.0000, 0.0000, 0.0000, 0.0000},
         {0.0000, 0.0000, 0.0000, 0.0000, 0.0000, 0.0000, 0.0000, 0.0000,
          0.0000, 0.0000, 0.0000, 0.0000, 0.0118, 0.7961, 0.9961, 0.8588,
          0.1373, 0.0000, 0.0000, 0.0000, 0.0000, 0.0000, 0.0000, 0.0000,
          0.0000, 0.0000, 0.0000, 0.0000},
         {0.0000, 0.0000, 0.0000, 0.0000, 0.0000, 0.0000, 0.0000, 0.0000,
          0.0000, 0.0000, 0.0000, 0.0000, 0.1490, 0.9961, 0.9961, 0.3020,
          0.0000, 0.0000, 0.0000, 0.0000, 0.0000, 0.0000, 0.0000, 0.0000,
          0.0000, 0.0000, 0.0000, 0.0000},
         {0.0000, 0.0000, 0.0000, 0.0000, 0.0000, 0.0000, 0.0000, 0.0000,
          0.0000, 0.0000, 0.0000, 0.1216, 0.8784, 0.9961, 0.4510, 0.0039,
          0.0000, 0.0000, 0.0000, 0.0000, 0.0000, 0.0000, 0.0000, 0.0000,
          0.0000, 0.0000, 0.0000, 0.0000},
         {0.0000, 0.0000, 0.0000, 0.0000, 0.0000, 0.0000, 0.0000, 0.0000,
          0.0000, 0.0000, 0.0000, 0.5216, 0.9961, 0.9961, 0.2039, 0.0000,
          0.0000, 0.0000, 0.0000, 0.0000, 0.0000, 0.0000, 0.0000, 0.0000,
          0.0000, 0.0000, 0.0000, 0.0000},
         {0.0000, 0.0000, 0.0000, 0.0000, 0.0000, 0.0000, 0.0000, 0.0000,
          0.0000, 0.0000, 0.2392, 0.9490, 0.9961, 0.9961, 0.2039, 0.0000,
          0.0000, 0.0000, 0.0000, 0.0000, 0.0000, 0.0000, 0.0000, 0.0000,
          0.0000, 0.0000, 0.0000, 0.0000},
         {0.0000, 0.0000, 0.0000, 0.0000, 0.0000, 0.0000, 0.0000, 0.0000,
          0.0000, 0.0000, 0.4745, 0.9961, 0.9961, 0.8588, 0.1569, 0.0000,
          0.0000, 0.0000, 0.0000, 0.0000, 0.0000, 0.0000, 0.0000, 0.0000,
          0.0000, 0.0000, 0.0000, 0.0000},
         {0.0000, 0.0000, 0.0000, 0.0000, 0.0000, 0.0000, 0.0000, 0.0000,
          0.0000, 0.0000, 0.4745, 0.9961, 0.8118, 0.0706, 0.0000, 0.0000,
          0.0000, 0.0000, 0.0000, 0.0000, 0.0000, 0.0000, 0.0000, 0.0000,
          0.0000, 0.0000, 0.0000, 0.0000},
         {0.0000, 0.0000, 0.0000, 0.0000, 0.0000, 0.0000, 0.0000, 0.0000,
          0.0000, 0.0000, 0.0000, 0.0000, 0.0000, 0.0000, 0.0000, 0.0000,
          0.0000, 0.0000, 0.0000, 0.0000, 0.0000, 0.0000, 0.0000, 0.0000,
          0.0000, 0.0000, 0.0000, 0.0000}};


//
//static float biasConv = {-0.1393,  0.2113,  0.5233, -0.2347, -0.3446,  0.0884};
//
//
//
//static float biasFc1 = { 0.0421,  0.0103,  0.0475,  0.0365,  0.0383, -0.0100, -0.0383, -0.0658,
//                         -0.0046, -0.0151, -0.0286,  0.0100,  0.0635, -0.0389, -0.0230, -0.0623,
//                         -0.0276,  0.0198, -0.0747, -0.0059, -0.0302, -0.0035, -0.0065,  0.0787,
//                         -0.0397, -0.0117,  0.0508, -0.0035,  0.0098,  0.0065, -0.0441, -0.0164,
//                         -0.0154, -0.0314, -0.0256, -0.0251, -0.0433, -0.0141, -0.0412,  0.0252,
//                          0.0110,  0.0771, -0.0333,  0.0504,  0.0309, -0.0358, -0.0248,  0.0535,
//                          0.0302,  0.0673};
//
//static float biasFc2 = {-0.1822,  0.0191,  0.0889, -0.1206, -0.1495,  0.0878, -0.1556,  0.1673,
//                        -0.2227, -0.1188};



#endif
